<?xml version="1.0"?>
<opencv_storage>
<cascade type_id="opencv-haar-classifier"><size>
    20 20</size>
  <stages>
    <_>
      <trees>
        <_>
          <_>
            <feature>
              <rects>
                <_>
                  4 4 12 5 -1.</_>
                <_>
                  8 4 4 5 3.</_></rects>
              <tilted>0</tilted></feature>
            <threshold>4.2213670909404755e-02</threshold>
            <left_val>-7.2328513860702515e-01</left_val>
            <right_val>7.1135210990905762e-01</right_val></_></_>
        <_>
          <_>
            <feature>
              <rects>
                <_>
                  3 7 15 9 -1.</_>
                <_>
                  3 10 15 3 3.</_></rects>
              <tilted>0</tilted></feature>
            <threshold>5.4120473563671112e-02</threshold>
            <left_val>-7.1703273057937622e-01</left_val>
            <right_val>6.4032387733459473e-01</right_val></_></_>
        <_>
          <_>
            <feature>
              <rects>
                <_>
                  5 1 10 6 -1.</_>
                <_>
                  5 3 10 2 3.</_></rects>
              <tilted>0</tilted></feature>
            <threshold>3.0786763876676559e-02</threshold>
            <left_val>-4.8970597982406616e-01</left_val>
            <right_val>6.3252741098403931e-01</right_val></_></_>
        <_>
          <_>
            <feature>
              <rects>
                <_>
                  16 0 4 10 -1.</_>
                <_>
                  16 0 2 5 2.</_>
                <_>
                  18 5 2 5 2.</_></rects>
              <tilted>0</tilted></feature>
            <threshold>-1.3458784669637680e-02</threshold>
            <left_val>6.1458015441894531e-01</left_val>
            <right_val>-3.8398516178131104e-01</right_val></_></_>
        <_>
          <_>
            <feature>
              <rects>
                <_>
                  0 0 4 10 -1.</_>
                <_>
                  0 0 2 5 2.</_>
                <_>
                  2 5 2 5 2.</_></rects>
              <tilted>0</tilted></feature>
            <threshold>1.9080117344856262e-02</threshold>
            <left_val>-2.6536050438880920e-01</left_val>
            <right_val>6.2534689903259277e-01</right_val></_></_>
        <_>
          <_>
            <feature>
              <rects>
                <_>
                  16 7 4 12 -1.</_>
                <_>
                  18 7 2 12 2.</_></rects>
              <tilted>0</tilted></feature>
            <threshold>3.7128977477550507e-02</threshold>
            <left_val>-1.9016754627227783e-01</left_val>
            <right_val>6.4134317636489868e-01</right_val></_></_>
        <_>
          <_>
            <feature>
              <rects>
                <_>
                  14 3 6 13 -1.</_>
                <_>
                  17 3 3 13 2.</_></rects>
              <tilted>0</tilted></feature>
            <threshold>-6.3148081302642822e-02</threshold>
            <left_val>5.8594697713851929e-01</left_val>
            <right_val>-2.1212972700595856e-01</right_val></_></_>
        <_>
          <_>
            <feature>
              <rects>
                <_>
                  6 5 8 12 -1.</_>
                <_>
                  6 11 8 6 2.</_></rects>
              <tilted>0</tilted></feature>
            <threshold>-7.7802464365959167e-02</threshold>
            <left_val>-7.7103590965270996e-01</left_val>
            <right_val>1.8176595866680145e-01</right_val></_></_>
        <_>
          <_>
            <feature>
              <rects>
                <_>
                  0 8 4 10 -1.</_>
                <_>
                  2 8 2 10 2.</_></rects>
              <tilted>0</tilted></feature>
            <threshold>-2.7947239577770233e-02</threshold>
            <left_val>4.8120829463005066e-01</left_val>
            <right_val>-2.4619919061660767e-01</right_val></_></_>
        <_>
          <_>
            <feature>
              <rects>
                <_>
                  1 2 4 14 -1.</_>
                <_>
                  3 2 2 14 2.</_></rects>
              <tilted>0</tilted></feature>
            <threshold>2.9272750020027161e-02</threshold>
            <left_val>-1.8861274421215057e-01</left_val>
            <right_val>5.3943204879760742e-01</right_val></_></_>
        <_>
          <_>
            <feature>
              <rects>
                <_>
                  8 0 3 4 -1.</_>
                <_>
                  9 0 1 4 3.</_></rects>
              <tilted>0</tilted></feature>
            <threshold>3.8447929546236992e-03</threshold>
            <left_val>1.2542068958282471e-01</left_val>
            <right_val>-7.2949552536010742e-01</right_val></_></_>
        <_>
          <_>
            <feature>
              <rects>
                <_>
                  5 1 10 6 -1.</_>
                <_>
                  5 4 10 3 2.</_></rects>
              <tilted>0</tilted></feature>
            <threshold>7.2887457907199860e-02</threshold>
            <left_val>-1.7024065554141998e-01</left_val>
            <right_val>5.6178134679794312e-01</right_val></_></_>
        <_>
          <_>
            <feature>
              <rects>
                <_>
                  2 11 18 5 -1.</_>
                <_>
                  8 11 6 5 3.</_></rects>
              <tilted>0</tilted></feature>
            <threshold>-5.1585860550403595e-02</threshold>
            <left_val>4.5930156111717224e-01</left_val>
            <right_val>-1.9280141592025757e-01</right_val></_></_></trees>
      <stage_threshold>-2.2405099868774414e+00</stage_threshold>
      <parent>-1</parent>
      <next>-1</next></_>
    <_>
      <trees>
        <_>
          <_>
            <feature>
              <rects>
                <_>
                  1 3 18 4 -1.</_>
                <_>
                  7 3 6 4 3.</_></rects>
              <tilted>0</tilted></feature>
            <threshold>8.0786019563674927e-02</threshold>
            <left_val>-6.4716589450836182e-01</left_val>
            <right_val>6.6582202911376953e-01</right_val></_></_>
        <_>
          <_>
            <feature>
              <rects>
                <_>
                  12 7 5 9 -1.</_>
                <_>
                  12 10 5 3 3.</_></rects>
              <tilted>0</tilted></feature>
            <threshold>2.2284680977463722e-02</threshold>
            <left_val>-6.9162636995315552e-01</left_val>
            <right_val>5.4366070032119751e-01</right_val></_></_>
        <_>
          <_>
            <feature>
              <rects>
                <_>
                  3 5 4 15 -1.</_>
                <_>
                  3 10 4 5 3.</_></rects>
              <tilted>0</tilted></feature>
            <threshold>3.0584724619984627e-02</threshold>
            <left_val>-5.9426200389862061e-01</left_val>
            <right_val>3.7150028347969055e-01</right_val></_></_>
        <_>
          <_>
            <feature>
              <rects>
                <_>
                  0 0 6 6 -1.</_>
                <_>
                  0 0 3 3 2.</_>
                <_>
                  3 3 3 3 2.</_></rects>
              <tilted>0</tilted></feature>
            <threshold>1.9926797598600388e-02</threshold>
            <left_val>-2.9735061526298523e-01</left_val>
            <right_val>6.3257348537445068e-01</right_val></_></_>
        <_>
          <_>
            <feature>
              <rects>
                <_>
                  7 6 6 5 -1.</_>
                <_>
                  9 6 2 5 3.</_></rects>
              <tilted>0</tilted></feature>
            <threshold>1.3758953660726547e-02</threshold>
            <left_val>-3.6684191226959229e-01</left_val>
            <right_val>4.5229479670524597e-01</right_val></_></_>
        <_>
          <_>
            <feature>
              <rects>
                <_>
                  0 11 6 8 -1.</_>
                <_>
                  3 11 3 8 2.</_></rects>
              <tilted>0</tilted></feature>
            <threshold>-4.6907901763916016e-02</threshold>
            <left_val>5.3994560241699219e-01</left_val>
            <right_val>-2.5521329045295715e-01</right_val></_></_>
        <_>
          <_>
            <feature>
              <rects>
                <_>
                  16 0 4 10 -1.</_>
                <_>
                  16 0 2 5 2.</_>
                <_>
                  18 5 2 5 2.</_></rects>
              <tilted>0</tilted></feature>
            <threshold>-1.7627511173486710e-02</threshold>
            <left_val>5.4479300975799561e-01</left_val>
            <right_val>-2.2082532942295074e-01</right_val></_></_>
        <_>
          <_>
            <feature>
              <rects>
                <_>
                  4 10 12 6 -1.</_>
                <_>
                  4 10 6 3 2.</_>
                <_>
                  10 13 6 3 2.</_></rects>
              <tilted>0</tilted></feature>
            <threshold>-2.0917970687150955e-02</threshold>
            <left_val>-6.5232497453689575e-01</left_val>
            <right_val>1.5181674063205719e-01</right_val></_></_>
        <_>
          <_>
            <feature>
              <rects>
                <_>
                  4 16 12 4 -1.</_>
                <_>
                  4 18 12 2 2.</_></rects>
              <tilted>0</tilted></feature>
            <threshold>-9.4487844035029411e-03</threshold>
            <left_val>2.9469573497772217e-01</left_val>
            <right_val>-3.4268361330032349e-01</right_val></_></_>
        <_>
          <_>
            <feature>
              <rects>
                <_>
                  14 9 6 11 -1.</_>
                <_>
                  17 9 3 11 2.</_></rects>
              <tilted>0</tilted></feature>
            <threshold>6.2315147370100021e-02</threshold>
            <left_val>-1.8612562119960785e-01</left_val>
            <right_val>5.8724206686019897e-01</right_val></_></_>
        <_>
          <_>
            <feature>
              <rects>
                <_>
                  6 1 9 6 -1.</_>
                <_>
                  6 3 9 2 3.</_></rects>
              <tilted>0</tilted></feature>
            <threshold>3.3401094377040863e-02</threshold>
            <left_val>-2.0365041494369507e-01</left_val>
            <right_val>4.7246944904327393e-01</right_val></_></_>
        <_>
          <_>
            <feature>
              <rects>
                <_>
                  12 11 8 8 -1.</_>
                <_>
                  16 11 4 8 2.</_></rects>
              <tilted>0</tilted></feature>
            <threshold>-8.0070897936820984e-02</threshold>
            <left_val>5.8107066154479980e-01</left_val>
            <right_val>-1.8061873316764832e-01</right_val></_></_>
        <_>
          <_>
            <feature>
              <rects>
                <_>
                  19 0 1 2 -1.</_>
                <_>
                  19 1 1 1 2.</_></rects>
              <tilted>0</tilted></feature>
            <threshold>3.7741492269560695e-04</threshold>
            <left_val>1.8288666009902954e-01</left_val>
            <right_val>-5.4350483417510986e-01</right_val></_></_>
        <_>
          <_>
            <feature>
              <rects>
                <_>
                  1 0 18 4 -1.</_>
                <_>
                  7 0 6 4 3.</_></rects>
              <tilted>0</tilted></feature>
            <threshold>-9.7464211285114288e-02</threshold>
            <left_val>6.2071520090103149e-01</left_val>
            <right_val>-1.6272993385791779e-01</right_val></_></_>
        <_>
          <_>
            <feature>
              <rects>
                <_>
                  10 0 3 4 -1.</_>
                <_>
                  11 0 1 4 3.</_></rects>
              <tilted>0</tilted></feature>
            <threshold>-4.2053982615470886e-03</threshold>
            <left_val>-7.9511594772338867e-01</left_val>
            <right_val>1.2465900182723999e-01</right_val></_></_>
        <_>
          <_>
            <feature>
              <rects>
                <_>
                  10 1 3 3 -1.</_>
                <_>
                  11 1 1 3 3.</_></rects>
              <tilted>0</tilted></feature>
            <threshold>2.4435340892523527e-03</threshold>
            <left_val>1.1924852430820465e-01</left_val>
            <right_val>-6.1432266235351562e-01</right_val></_></_>
        <_>
          <_>
            <feature>
              <rects>
                <_>
                  2 7 16 6 -1.</_>
                <_>
                  2 9 16 2 3.</_></rects>
              <tilted>0</tilted></feature>
            <threshold>4.6824667602777481e-02</threshold>
            <left_val>-1.9456039369106293e-01</left_val>
            <right_val>3.9559790492057800e-01</right_val></_></_></trees>
      <stage_threshold>-2.2981348037719727e+00</stage_threshold>
      <parent>0</parent>
      <next>-1</next></_>
    <_>
      <trees>
        <_>
          <_>
            <feature>
              <rects>
                <_>
                  9 6 6 8 -1.</_>
                <_>
                  9 6 3 4 2.</_>
                <_>
                  12 10 3 4 2.</_></rects>
              <tilted>0</tilted></feature>
            <threshold>1.5108995139598846e-02</threshold>
            <left_val>-6.0514324903488159e-01</left_val>
            <right_val>6.0512894392013550e-01</right_val></_></_>
        <_>
          <_>
            <feature>
              <rects>
                <_>
                  4 0 12 9 -1.</_>
                <_>
                  4 3 12 3 3.</_></rects>
              <tilted>0</tilted></feature>
            <threshold>7.3603928089141846e-02</threshold>
            <left_val>-5.1662862300872803e-01</left_val>
            <right_val>5.7995569705963135e-01</right_val></_></_>
        <_>
          <_>
            <feature>
              <rects>
                <_>
                  2 5 15 15 -1.</_>
                <_>
                  2 10 15 5 3.</_></rects>
              <tilted>0</tilted></feature>
            <threshold>9.5492422580718994e-02</threshold>
            <left_val>-6.3212472200393677e-01</left_val>
            <right_val>3.8388583064079285e-01</right_val></_></_>
        <_>
          <_>
            <feature>
              <rects>
                <_>
                  15 3 4 10 -1.</_>
                <_>
                  17 3 2 10 2.</_></rects>
              <tilted>0</tilted></feature>
            <threshold>-2.5529617443680763e-02</threshold>
            <left_val>5.8320671319961548e-01</left_val>
            <right_val>-3.2527387142181396e-01</right_val></_></_>
        <_>
          <_>
            <feature>
              <rects>
                <_>
                  0 0 4 12 -1.</_>
                <_>
                  0 0 2 6 2.</_>
                <_>
                  2 6 2 6 2.</_></rects>
              <tilted>0</tilted></feature>
            <threshold>2.1131960675120354e-02</threshold>
            <left_val>-3.1994315981864929e-01</left_val>
            <right_val>4.9247989058494568e-01</right_val></_></_>
        <_>
          <_>
            <feature>
              <rects>
                <_>
                  14 11 6 8 -1.</_>
                <_>
                  17 11 3 8 2.</_></rects>
              <tilted>0</tilted></feature>
            <threshold>4.7594510018825531e-02</threshold>
            <left_val>-2.3773705959320068e-01</left_val>
            <right_val>6.8084514141082764e-01</right_val></_></_>
        <_>
          <_>
            <feature>
              <rects>
                <_>
                  1 17 18 2 -1.</_>
                <_>
                  7 17 6 2 3.</_></rects>
              <tilted>0</tilted></feature>
            <threshold>6.9327101111412048e-02</threshold>
            <left_val>-1.8075114488601685e-01</left_val>
            <right_val>7.1830207109451294e-01</right_val></_></_>
        <_>
          <_>
            <feature>
              <rects>
                <_>
                  0 8 4 11 -1.</_>
                <_>
                  2 8 2 11 2.</_></rects>
              <tilted>0</tilted></feature>
            <threshold>-3.2138165086507797e-02</threshold>
            <left_val>5.7855689525604248e-01</left_val>
            <right_val>-2.0853808522224426e-01</right_val></_></_>
        <_>
          <_>
            <feature>
              <rects>
                <_>
                  13 4 2 1 -1.</_>
                <_>
                  14 4 1 1 2.</_></rects>
              <tilted>0</tilted></feature>
            <threshold>-3.7959020119160414e-05</threshold>
            <left_val>3.1411305069923401e-01</left_val>
            <right_val>-3.4883752465248108e-01</right_val></_></_>
        <_>
          <_>
            <feature>
              <rects>
                <_>
                  1 3 4 11 -1.</_>
                <_>
                  3 3 2 11 2.</_></rects>
              <tilted>0</tilted></feature>
            <threshold>2.6583474129438400e-02</threshold>
            <left_val>-2.2257524728775024e-01</left_val>
            <right_val>4.2090478539466858e-01</right_val></_></_>
        <_>
          <_>
            <feature>
              <rects>
                <_>
                  5 8 1 4 -1.</_>
                <_>
                  5 10 1 2 2.</_></rects>
              <tilted>0</tilted></feature>
            <threshold>6.3296500593423843e-04</threshold>
            <left_val>-3.6843273043632507e-01</left_val>
            <right_val>2.5054761767387390e-01</right_val></_></_>
        <_>
          <_>
            <feature>
              <rects>
                <_>
                  7 6 4 14 -1.</_>
                <_>
                  7 13 4 7 2.</_></rects>
              <tilted>0</tilted></feature>
            <threshold>3.0312594026327133e-02</threshold>
            <left_val>1.1553174257278442e-01</left_val>
            <right_val>-7.0649039745330811e-01</right_val></_></_>
        <_>
          <_>
            <feature>
              <rects>
                <_>
                  12 2 3 4 -1.</_>
                <_>
                  13 2 1 4 3.</_></rects>
              <tilted>0</tilted></feature>
            <threshold>4.1656317189335823e-03</threshold>
            <left_val>1.0454159975051880e-01</left_val>
            <right_val>-7.5772643089294434e-01</right_val></_></_>
        <_>
          <_>
            <feature>
              <rects>
                <_>
                  14 0 6 4 -1.</_>
                <_>
                  17 0 3 4 2.</_></rects>
              <tilted>0</tilted></feature>
            <threshold>3.5844773054122925e-02</threshold>
            <left_val>-1.7182011902332306e-01</left_val>
            <right_val>5.3491234779357910e-01</right_val></_></_>
        <_>
          <_>
            <feature>
              <rects>
                <_>
                  9 15 3 5 -1.</_>
                <_>
                  10 15 1 5 3.</_></rects>
              <tilted>0</tilted></feature>
            <threshold>-5.3401105105876923e-03</threshold>
            <left_val>-8.4755283594131470e-01</left_val>
            <right_val>1.0079231113195419e-01</right_val></_></_>
        <_>
          <_>
            <feature>
              <rects>
                <_>
                  8 16 3 4 -1.</_>
                <_>
                  9 16 1 4 3.</_></rects>
              <tilted>0</tilted></feature>
            <threshold>-4.3294699862599373e-03</threshold>
            <left_val>-8.2391601800918579e-01</left_val>
            <right_val>7.3433816432952881e-02</right_val></_></_>
        <_>
          <_>
            <feature>
              <rects>
                <_>
                  18 0 2 10 -1.</_>
                <_>
                  18 0 1 5 2.</_>
                <_>
                  19 5 1 5 2.</_></rects>
              <tilted>0</tilted></feature>
            <threshold>-6.8554705940186977e-03</threshold>
            <left_val>3.9329066872596741e-01</left_val>
            <right_val>-1.8694813549518585e-01</right_val></_></_>
        <_>
          <_>
            <feature>
              <rects>
                <_>
                  11 2 3 4 -1.</_>
                <_>
                  12 2 1 4 3.</_></rects>
              <tilted>0</tilted></feature>
            <threshold>4.6870359219610691e-03</threshold>
            <left_val>1.0680925846099854e-01</left_val>
            <right_val>-7.1294331550598145e-01</right_val></_></_>
        <_>
          <_>
            <feature>
              <rects>
                <_>
                  4 14 11 6 -1.</_>
                <_>
                  4 16 11 2 3.</_></rects>
              <tilted>0</tilted></feature>
            <threshold>1.3742916285991669e-02</threshold>
            <left_val>-2.3120179772377014e-01</left_val>
            <right_val>2.9405695199966431e-01</right_val></_></_></trees>
      <stage_threshold>-2.1303555965423584e+00</stage_threshold>
      <parent>1</parent>
      <next>-1</next></_>
    <_>
      <trees>
        <_>
          <_>
            <feature>
              <rects>
                <_>
                  4 5 12 6 -1.</_>
                <_>
                  4 7 12 2 3.</_></rects>
              <tilted>0</tilted></feature>
            <threshold>-4.5420534908771515e-02</threshold>
            <left_val>6.3679718971252441e-01</left_val>
            <right_val>-4.9737989902496338e-01</right_val></_></_>
        <_>
          <_>
            <feature>
              <rects>
                <_>
                  1 4 18 4 -1.</_>
                <_>
                  7 4 6 4 3.</_></rects>
              <tilted>0</tilted></feature>
            <threshold>7.3145024478435516e-02</threshold>
            <left_val>-6.0807389020919800e-01</left_val>
            <right_val>4.9942919611930847e-01</right_val></_></_>
        <_>
          <_>
            <feature>
              <rects>
                <_>
                  5 6 6 8 -1.</_>
                <_>
                  5 6 3 4 2.</_>
                <_>
                  8 10 3 4 2.</_></rects>
              <tilted>0</tilted></feature>
            <threshold>-1.2235501781105995e-02</threshold>
            <left_val>3.6277016997337341e-01</left_val>
            <right_val>-4.9539557099342346e-01</right_val></_></_>
        <_>
          <_>
            <feature>
              <rects>
                <_>
                  0 0 4 8 -1.</_>
                <_>
                  0 0 2 4 2.</_>
                <_>
                  2 4 2 4 2.</_></rects>
              <tilted>0</tilted></feature>
            <threshold>1.2324308045208454e-02</threshold>
            <left_val>-3.5051289200782776e-01</left_val>
            <right_val>4.7341781854629517e-01</right_val></_></_>
        <_>
          <_>
            <feature>
              <rects>
                <_>
                  13 5 4 15 -1.</_>
                <_>
                  13 10 4 5 3.</_></rects>
              <tilted>0</tilted></feature>
            <threshold>2.8084740042686462e-02</threshold>
            <left_val>-5.0102126598358154e-01</left_val>
            <right_val>2.6992511749267578e-01</right_val></_></_>
        <_>
          <_>
            <feature>
              <rects>
                <_>
                  18 0 2 20 -1.</_>
                <_>
                  19 0 1 20 2.</_></rects>
              <tilted>0</tilted></feature>
            <threshold>1.7868993803858757e-02</threshold>
            <left_val>-2.2244027256965637e-01</left_val>
            <right_val>5.5431234836578369e-01</right_val></_></_>
        <_>
          <_>
            <feature>
              <rects>
                <_>
                  16 4 4 11 -1.</_>
                <_>
                  18 4 2 11 2.</_></rects>
              <tilted>0</tilted></feature>
            <threshold>-4.1874714195728302e-02</threshold>
            <left_val>5.5981183052062988e-01</left_val>
            <right_val>-2.1374356746673584e-01</right_val></_></_>
        <_>
          <_>
            <feature>
              <rects>
                <_>
                  0 2 4 17 -1.</_>
                <_>
                  2 2 2 17 2.</_></rects>
              <tilted>0</tilted></feature>
            <threshold>-6.7850269377231598e-02</threshold>
            <left_val>6.2255400419235229e-01</left_val>
            <right_val>-1.6797089576721191e-01</right_val></_></_>
        <_>
          <_>
            <feature>
              <rects>
                <_>
                  12 0 8 4 -1.</_>
                <_>
                  12 0 4 2 2.</_>
                <_>
                  16 2 4 2 2.</_></rects>
              <tilted>0</tilted></feature>
            <threshold>-1.4003872871398926e-02</threshold>
            <left_val>4.2377164959907532e-01</left_val>
            <right_val>-2.1788832545280457e-01</right_val></_></_>
        <_>
          <_>
            <feature>
              <rects>
                <_>
                  8 5 5 10 -1.</_>
                <_>
                  8 10 5 5 2.</_></rects>
              <tilted>0</tilted></feature>
            <threshold>-4.2612046003341675e-02</threshold>
            <left_val>-7.4464029073715210e-01</left_val>
            <right_val>1.5070627629756927e-01</right_val></_></_>
        <_>
          <_>
            <feature>
              <rects>
                <_>
                  0 16 10 3 -1.</_>
                <_>
                  5 16 5 3 2.</_></rects>
              <tilted>0</tilted></feature>
            <threshold>5.7730220258235931e-02</threshold>
            <left_val>-1.5784542262554169e-01</left_val>
            <right_val>5.5261337757110596e-01</right_val></_></_>
        <_>
          <_>
            <feature>
              <rects>
                <_>
                  12 14 8 4 -1.</_>
                <_>
                  16 14 4 4 2.</_></rects>
              <tilted>0</tilted></feature>
            <threshold>3.6997139453887939e-02</threshold>
            <left_val>-1.8109543621540070e-01</left_val>
            <right_val>5.3804373741149902e-01</right_val></_></_>
        <_>
          <_>
            <feature>
              <rects>
                <_>
                  4 1 11 8 -1.</_>
                <_>
                  4 5 11 4 2.</_></rects>
              <tilted>0</tilted></feature>
            <threshold>8.0947272479534149e-02</threshold>
            <left_val>-1.7192845046520233e-01</left_val>
            <right_val>4.8986905813217163e-01</right_val></_></_>
        <_>
          <_>
            <feature>
              <rects>
                <_>
                  5 1 9 6 -1.</_>
                <_>
                  5 3 9 2 3.</_></rects>
              <tilted>0</tilted></feature>
            <threshold>3.2474480569362640e-02</threshold>
            <left_val>-2.2849351167678833e-01</left_val>
            <right_val>3.6093324422836304e-01</right_val></_></_>
        <_>
          <_>
            <feature>
              <rects>
                <_>
                  0 0 1 2 -1.</_>
                <_>
                  0 1 1 1 2.</_></rects>
              <tilted>0</tilted></feature>
            <threshold>4.3087796075269580e-04</threshold>
            <left_val>1.3474981486797333e-01</left_val>
            <right_val>-5.5056172609329224e-01</right_val></_></_>
        <_>
          <_>
            <feature>
              <rects>
                <_>
                  6 14 9 6 -1.</_>
                <_>
                  6 16 9 2 3.</_></rects>
              <tilted>0</tilted></feature>
            <threshold>6.2697893008589745e-03</threshold>
            <left_val>-2.9173475503921509e-01</left_val>
            <right_val>2.4726639688014984e-01</right_val></_></_>
        <_>
          <_>
            <feature>
              <rects>
                <_>
                  8 0 3 6 -1.</_>
                <_>
                  9 0 1 6 3.</_></rects>
              <tilted>0</tilted></feature>
            <threshold>-4.3555540032684803e-03</threshold>
            <left_val>-7.5953871011734009e-01</left_val>
            <right_val>9.7454175353050232e-02</right_val></_></_>
        <_>
          <_>
            <feature>
              <rects>
                <_>
                  8 0 3 4 -1.</_>
                <_>
                  9 0 1 4 3.</_></rects>
              <tilted>0</tilted></feature>
            <threshold>3.4845103509724140e-03</threshold>
            <left_val>9.2483334243297577e-02</left_val>
            <right_val>-7.0167171955108643e-01</right_val></_></_>
        <_>
          <_>
            <feature>
              <rects>
                <_>
                  1 11 4 8 -1.</_>
                <_>
                  1 11 2 4 2.</_>
                <_>
                  3 15 2 4 2.</_></rects>
              <tilted>0</tilted></feature>
            <threshold>-1.7868116497993469e-02</threshold>
            <left_val>4.3575274944305420e-01</left_val>
            <right_val>-1.6127219796180725e-01</right_val></_></_>
        <_>
          <_>
            <feature>
              <rects>
                <_>
                  9 15 3 5 -1.</_>
                <_>
                  10 15 1 5 3.</_></rects>
              <tilted>0</tilted></feature>
            <threshold>6.6559333354234695e-03</threshold>
            <left_val>8.0667309463024139e-02</left_val>
            <right_val>-7.9443717002868652e-01</right_val></_></_>
        <_>
          <_>
            <feature>
              <rects>
                <_>
                  7 6 6 6 -1.</_>
                <_>
                  9 6 2 6 3.</_></rects>
              <tilted>0</tilted></feature>
            <threshold>2.2462815046310425e-02</threshold>
            <left_val>-1.7919804155826569e-01</left_val>
            <right_val>3.2435801625251770e-01</right_val></_></_>
        <_>
          <_>
            <feature>
              <rects>
                <_>
                  11 0 3 6 -1.</_>
                <_>
                  12 0 1 6 3.</_></rects>
              <tilted>0</tilted></feature>
            <threshold>-5.2388254553079605e-03</threshold>
            <left_val>-7.0547169446945190e-01</left_val>
            <right_val>8.8390260934829712e-02</right_val></_></_>
        <_>
          <_>
            <feature>
              <rects>
                <_>
                  1 0 18 4 -1.</_>
                <_>
                  7 0 6 4 3.</_></rects>
              <tilted>0</tilted></feature>
            <threshold>-1.1613532900810242e-01</threshold>
            <left_val>5.6765449047088623e-01</left_val>
            <right_val>-1.2604905664920807e-01</right_val></_></_>
        <_>
          <_>
            <feature>
              <rects>
                <_>
                  15 12 1 2 -1.</_>
                <_>
                  15 13 1 1 2.</_></rects>
              <tilted>0</tilted></feature>
            <threshold>-4.1629155020928010e-05</threshold>
            <left_val>2.1821804344654083e-01</left_val>
            <right_val>-2.6788118481636047e-01</right_val></_></_>
        <_>
          <_>
            <feature>
              <rects>
                <_>
                  8 16 3 3 -1.</_>
                <_>
                  9 16 1 3 3.</_></rects>
              <tilted>0</tilted></feature>
            <threshold>3.8160507101565599e-03</threshold>
            <left_val>7.4494816362857819e-02</left_val>
            <right_val>-7.0042651891708374e-01</right_val></_></_>
        <_>
          <_>
            <feature>
              <rects>
                <_>
                  8 15 3 5 -1.</_>
                <_>
                  9 15 1 5 3.</_></rects>
              <tilted>0</tilted></feature>
            <threshold>-4.5104883611202240e-03</threshold>
            <left_val>-7.6628434658050537e-01</left_val>
            <right_val>5.3326934576034546e-02</right_val></_></_></trees>
      <stage_threshold>-2.2849504947662354e+00</stage_threshold>
      <parent>2</parent>
      <next>-1</next></_>
    <_>
      <trees>
        <_>
          <_>
            <feature>
              <rects>
                <_>
                  6 1 10 6 -1.</_>
                <_>
                  6 3 10 2 3.</_></rects>
              <tilted>0</tilted></feature>
            <threshold>2.6371534913778305e-02</threshold>
            <left_val>-5.7461619377136230e-01</left_val>
            <right_val>5.1112103462219238e-01</right_val></_></_>
        <_>
          <_>
            <feature>
              <rects>
                <_>
                  6 5 4 4 -1.</_>
                <_>
                  8 5 2 4 2.</_></rects>
              <tilted>0</tilted></feature>
            <threshold>6.8099144846200943e-03</threshold>
            <left_val>-5.9897059202194214e-01</left_val>
            <right_val>4.0264391899108887e-01</right_val></_></_>
        <_>
          <_>
            <feature>
              <rects>
                <_>
                  2 7 15 9 -1.</_>
                <_>
                  2 10 15 3 3.</_></rects>
              <tilted>0</tilted></feature>
            <threshold>6.5599918365478516e-02</threshold>
            <left_val>-5.3623908758163452e-01</left_val>
            <right_val>3.2674857974052429e-01</right_val></_></_>
        <_>
          <_>
            <feature>
              <rects>
                <_>
                  16 0 4 12 -1.</_>
                <_>
                  16 0 2 6 2.</_>
                <_>
                  18 6 2 6 2.</_></rects>
              <tilted>0</tilted></feature>
            <threshold>-2.1103397011756897e-02</threshold>
            <left_val>5.1798343658447266e-01</left_val>
            <right_val>-3.5344690084457397e-01</right_val></_></_>
        <_>
          <_>
            <feature>
              <rects>
                <_>
                  0 3 3 12 -1.</_>
                <_>
                  1 3 1 12 3.</_></rects>
              <tilted>0</tilted></feature>
            <threshold>-1.4050027355551720e-02</threshold>
            <left_val>6.0023331642150879e-01</left_val>
            <right_val>-2.6977404952049255e-01</right_val></_></_>
        <_>
          <_>
            <feature>
              <rects>
                <_>
                  4 16 6 2 -1.</_>
                <_>
                  4 16 3 1 2.</_>
                <_>
                  7 17 3 1 2.</_></rects>
              <tilted>0</tilted></feature>
            <threshold>1.8832101486623287e-03</threshold>
            <left_val>-3.0070415139198303e-01</left_val>
            <right_val>3.8636952638626099e-01</right_val></_></_>
        <_>
          <_>
            <feature>
              <rects>
                <_>
                  10 3 4 6 -1.</_>
                <_>
                  12 3 2 6 2.</_></rects>
              <tilted>0</tilted></feature>
            <threshold>-4.5764101669192314e-03</threshold>
            <left_val>2.3977492749691010e-01</left_val>
            <right_val>-4.2046469449996948e-01</right_val></_></_>
        <_>
          <_>
            <feature>
              <rects>
                <_>
                  4 3 12 6 -1.</_>
                <_>
                  4 5 12 2 3.</_></rects>
              <tilted>0</tilted></feature>
            <threshold>3.5007815808057785e-02</threshold>
            <left_val>-2.1440170705318451e-01</left_val>
            <right_val>4.6260875463485718e-01</right_val></_></_>
        <_>
          <_>
            <feature>
              <rects>
                <_>
                  19 0 1 4 -1.</_>
                <_>
                  19 2 1 2 2.</_></rects>
              <tilted>0</tilted></feature>
            <threshold>8.6932838894426823e-04</threshold>
            <left_val>1.6311198472976685e-01</left_val>
            <right_val>-5.5973368883132935e-01</right_val></_></_>
        <_>
          <_>
            <feature>
              <rects>
                <_>
                  2 2 3 12 -1.</_>
                <_>
                  2 8 3 6 2.</_></rects>
              <tilted>0</tilted></feature>
            <threshold>1.3586649671196938e-02</threshold>
            <left_val>-3.9824569225311279e-01</left_val>
            <right_val>2.3480361700057983e-01</right_val></_></_>
        <_>
          <_>
            <feature>
              <rects>
                <_>
                  16 9 4 10 -1.</_>
                <_>
                  18 9 2 10 2.</_></rects>
              <tilted>0</tilted></feature>
            <threshold>3.4284688532352448e-02</threshold>
            <left_val>-1.9831764698028564e-01</left_val>
            <right_val>5.5735486745834351e-01</right_val></_></_>
        <_>
          <_>
            <feature>
              <rects>
                <_>
                  12 14 8 4 -1.</_>
                <_>
                  16 14 4 4 2.</_></rects>
              <tilted>0</tilted></feature>
            <threshold>-4.6164534986019135e-02</threshold>
            <left_val>5.9723824262619019e-01</left_val>
            <right_val>-1.8305295705795288e-01</right_val></_></_>
        <_>
          <_>
            <feature>
              <rects>
                <_>
                  0 13 6 4 -1.</_>
                <_>
                  3 13 3 4 2.</_></rects>
              <tilted>0</tilted></feature>
            <threshold>-3.4123353660106659e-02</threshold>
            <left_val>5.7445150613784790e-01</left_val>
            <right_val>-1.3427972793579102e-01</right_val></_></_>
        <_>
          <_>
            <feature>
              <rects>
                <_>
                  6 0 3 5 -1.</_>
                <_>
                  7 0 1 5 3.</_></rects>
              <tilted>0</tilted></feature>
            <threshold>-4.1146380826830864e-03</threshold>
            <left_val>-7.0748800039291382e-01</left_val>
            <right_val>1.1591687798500061e-01</right_val></_></_>
        <_>
          <_>
            <feature>
              <rects>
                <_>
                  0 2 6 15 -1.</_>
                <_>
                  3 2 3 15 2.</_></rects>
              <tilted>0</tilted></feature>
            <threshold>8.1032916903495789e-02</threshold>
            <left_val>-1.9456927478313446e-01</left_val>
            <right_val>3.9987385272979736e-01</right_val></_></_>
        <_>
          <_>
            <feature>
              <rects>
                <_>
                  0 1 4 7 -1.</_>
                <_>
                  2 1 2 7 2.</_></rects>
              <tilted>0</tilted></feature>
            <threshold>-3.9509981870651245e-02</threshold>
            <left_val>5.6270527839660645e-01</left_val>
            <right_val>-1.1036702245473862e-01</right_val></_></_>
        <_>
          <_>
            <feature>
              <rects>
                <_>
                  2 7 16 8 -1.</_>
                <_>
                  2 7 8 4 2.</_>
                <_>
                  10 11 8 4 2.</_></rects>
              <tilted>0</tilted></feature>
            <threshold>-5.8101128786802292e-02</threshold>
            <left_val>-7.0541006326675415e-01</left_val>
            <right_val>1.1012724041938782e-01</right_val></_></_>
        <_>
          <_>
            <feature>
              <rects>
                <_>
                  6 0 3 6 -1.</_>
                <_>
                  7 0 1 6 3.</_></rects>
              <tilted>0</tilted></feature>
            <threshold>4.6037519350647926e-03</threshold>
            <left_val>8.7048053741455078e-02</left_val>
            <right_val>-6.4263999462127686e-01</right_val></_></_>
        <_>
          <_>
            <feature>
              <rects>
                <_>
                  4 7 12 10 -1.</_>
                <_>
                  4 7 6 5 2.</_>
                <_>
                  10 12 6 5 2.</_></rects>
              <tilted>0</tilted></feature>
            <threshold>6.3522368669509888e-02</threshold>
            <left_val>6.7159272730350494e-02</left_val>
            <right_val>-7.6057195663452148e-01</right_val></_></_>
        <_>
          <_>
            <feature>
              <rects>
                <_>
                  0 0 2 10 -1.</_>
                <_>
                  0 0 1 5 2.</_>
                <_>
                  1 5 1 5 2.</_></rects>
              <tilted>0</tilted></feature>
            <threshold>9.0893302112817764e-03</threshold>
            <left_val>-1.5570653975009918e-01</left_val>
            <right_val>4.0714067220687866e-01</right_val></_></_>
        <_>
          <_>
            <feature>
              <rects>
                <_>
                  12 0 3 6 -1.</_>
                <_>
                  13 0 1 6 3.</_></rects>
              <tilted>0</tilted></feature>
            <threshold>-6.6269421949982643e-03</threshold>
            <left_val>-7.3014575242996216e-01</left_val>
            <right_val>8.2992784678936005e-02</right_val></_></_>
        <_>
          <_>
            <feature>
              <rects>
                <_>
                  5 16 11 4 -1.</_>
                <_>
                  5 18 11 2 2.</_></rects>
              <tilted>0</tilted></feature>
            <threshold>-3.7396114785224199e-03</threshold>
            <left_val>1.6304232180118561e-01</left_val>
            <right_val>-3.2581719756126404e-01</right_val></_></_>
        <_>
          <_>
            <feature>
              <rects>
                <_>
                  17 3 3 8 -1.</_>
                <_>
                  18 3 1 8 3.</_></rects>
              <tilted>0</tilted></feature>
            <threshold>-1.0360073298215866e-02</threshold>
            <left_val>3.9020362496376038e-01</left_val>
            <right_val>-1.3624782860279083e-01</right_val></_></_>
        <_>
          <_>
            <feature>
              <rects>
                <_>
                  0 0 1 4 -1.</_>
                <_>
                  0 2 1 2 2.</_></rects>
              <tilted>0</tilted></feature>
            <threshold>1.4734097057953477e-03</threshold>
            <left_val>1.0758406668901443e-01</left_val>
            <right_val>-4.8566037416458130e-01</right_val></_></_>
        <_>
          <_>
            <feature>
              <rects>
                <_>
                  7 6 7 12 -1.</_>
                <_>
                  7 12 7 6 2.</_></rects>
              <tilted>0</tilted></feature>
            <threshold>-9.1257899999618530e-02</threshold>
            <left_val>-7.2723132371902466e-01</left_val>
            <right_val>6.3399404287338257e-02</right_val></_></_></trees>
      <stage_threshold>-2.2074565887451172e+00</stage_threshold>
      <parent>3</parent>
      <next>-1</next></_>
    <_>
      <trees>
        <_>
          <_>
            <feature>
              <rects>
                <_>
                  1 2 18 4 -1.</_>
                <_>
                  7 2 6 4 3.</_></rects>
              <tilted>0</tilted></feature>
            <threshold>1.3348370790481567e-01</threshold>
            <left_val>-3.8035264611244202e-01</left_val>
            <right_val>6.3875126838684082e-01</right_val></_></_>
        <_>
          <_>
            <feature>
              <rects>
                <_>
                  4 7 3 9 -1.</_>
                <_>
                  4 10 3 3 3.</_></rects>
              <tilted>0</tilted></feature>
            <threshold>1.5070283785462379e-02</threshold>
            <left_val>-6.2038558721542358e-01</left_val>
            <right_val>3.6429321765899658e-01</right_val></_></_>
        <_>
          <_>
            <feature>
              <rects>
                <_>
                  0 0 6 6 -1.</_>
                <_>
                  0 0 3 3 2.</_>
                <_>
                  3 3 3 3 2.</_></rects>
              <tilted>0</tilted></feature>
            <threshold>2.4141583591699600e-02</threshold>
            <left_val>-3.1135573983192444e-01</left_val>
            <right_val>5.0816756486892700e-01</right_val></_></_>
        <_>
          <_>
            <feature>
              <rects>
                <_>
                  7 5 6 6 -1.</_>
                <_>
                  9 5 2 6 3.</_></rects>
              <tilted>0</tilted></feature>
            <threshold>1.8403179943561554e-02</threshold>
            <left_val>-3.8708326220512390e-01</left_val>
            <right_val>3.7432444095611572e-01</right_val></_></_>
        <_>
          <_>
            <feature>
              <rects>
                <_>
                  15 15 1 2 -1.</_>
                <_>
                  15 16 1 1 2.</_></rects>
              <tilted>0</tilted></feature>
            <threshold>-4.5935488742543384e-05</threshold>
            <left_val>2.4613554775714874e-01</left_val>
            <right_val>-4.4212126731872559e-01</right_val></_></_>
        <_>
          <_>
            <feature>
              <rects>
                <_>
                  4 10 12 6 -1.</_>
                <_>
                  4 10 6 3 2.</_>
                <_>
                  10 13 6 3 2.</_></rects>
              <tilted>0</tilted></feature>
            <threshold>1.8610499799251556e-02</threshold>
            <left_val>1.7759703099727631e-01</left_val>
            <right_val>-7.1288108825683594e-01</right_val></_></_>
        <_>
          <_>
            <feature>
              <rects>
                <_>
                  14 0 6 6 -1.</_>
                <_>
                  14 0 3 3 2.</_>
                <_>
                  17 3 3 3 2.</_></rects>
              <tilted>0</tilted></feature>
            <threshold>-2.1913081407546997e-02</threshold>
            <left_val>4.1950061917304993e-01</left_val>
            <right_val>-2.4012452363967896e-01</right_val></_></_>
        <_>
          <_>
            <feature>
              <rects>
                <_>
                  3 13 8 6 -1.</_>
                <_>
                  3 13 4 3 2.</_>
                <_>
                  7 16 4 3 2.</_></rects>
              <tilted>0</tilted></feature>
            <threshold>6.4412783831357956e-03</threshold>
            <left_val>-3.2585936784744263e-01</left_val>
            <right_val>2.6715028285980225e-01</right_val></_></_>
        <_>
          <_>
            <feature>
              <rects>
                <_>
                  0 14 8 4 -1.</_>
                <_>
                  4 14 4 4 2.</_></rects>
              <tilted>0</tilted></feature>
            <threshold>-4.8557698726654053e-02</threshold>
            <left_val>6.0022842884063721e-01</left_val>
            <right_val>-1.6581661999225616e-01</right_val></_></_>
        <_>
          <_>
            <feature>
              <rects>
                <_>
                  0 8 6 10 -1.</_>
                <_>
                  3 8 3 10 2.</_></rects>
              <tilted>0</tilted></feature>
            <threshold>8.0683007836341858e-02</threshold>
            <left_val>-1.4837908744812012e-01</left_val>
            <right_val>5.2475678920745850e-01</right_val></_></_>
        <_>
          <_>
            <feature>
              <rects>
                <_>
                  16 0 4 17 -1.</_>
                <_>
                  18 0 2 17 2.</_></rects>
              <tilted>0</tilted></feature>
            <threshold>8.4612764418125153e-02</threshold>
            <left_val>-1.0559694468975067e-01</left_val>
            <right_val>6.5707248449325562e-01</right_val></_></_>
        <_>
          <_>
            <feature>
              <rects>
                <_>
                  3 7 14 6 -1.</_>
                <_>
                  3 9 14 2 3.</_></rects>
              <tilted>0</tilted></feature>
            <threshold>3.5024069249629974e-02</threshold>
            <left_val>-2.1687571704387665e-01</left_val>
            <right_val>3.5141295194625854e-01</right_val></_></_>
        <_>
          <_>
            <feature>
              <rects>
                <_>
                  6 0 8 8 -1.</_>
                <_>
                  6 4 8 4 2.</_></rects>
              <tilted>0</tilted></feature>
            <threshold>8.7206915020942688e-02</threshold>
            <left_val>-2.2760230302810669e-01</left_val>
            <right_val>4.9541112780570984e-01</right_val></_></_>
        <_>
          <_>
            <feature>
              <rects>
                <_>
                  7 5 6 15 -1.</_>
                <_>
                  7 10 6 5 3.</_></rects>
              <tilted>0</tilted></feature>
            <threshold>-4.3640922755002975e-02</threshold>
            <left_val>-7.6475983858108521e-01</left_val>
            <right_val>1.1474527418613434e-01</right_val></_></_>
        <_>
          <_>
            <feature>
              <rects>
                <_>
                  9 0 3 4 -1.</_>
                <_>
                  10 0 1 4 3.</_></rects>
              <tilted>0</tilted></feature>
            <threshold>3.8865727838128805e-03</threshold>
            <left_val>7.8886061906814575e-02</left_val>
            <right_val>-7.1934705972671509e-01</right_val></_></_>
        <_>
          <_>
            <feature>
              <rects>
                <_>
                  9 1 3 4 -1.</_>
                <_>
                  10 1 1 4 3.</_></rects>
              <tilted>0</tilted></feature>
            <threshold>-2.8752561192959547e-03</threshold>
            <left_val>-6.9962370395660400e-01</left_val>
            <right_val>9.2469558119773865e-02</right_val></_></_>
        <_>
          <_>
            <feature>
              <rects>
                <_>
                  11 9 2 10 -1.</_>
                <_>
                  11 14 2 5 2.</_></rects>
              <tilted>0</tilted></feature>
            <threshold>-2.7211751788854599e-02</threshold>
            <left_val>-6.6912549734115601e-01</left_val>
            <right_val>9.2361375689506531e-02</right_val></_></_>
        <_>
          <_>
            <feature>
              <rects>
                <_>
                  0 5 20 10 -1.</_>
                <_>
                  0 5 10 5 2.</_>
                <_>
                  10 10 10 5 2.</_></rects>
              <tilted>0</tilted></feature>
            <threshold>-6.9625340402126312e-02</threshold>
            <left_val>-5.5302476882934570e-01</left_val>
            <right_val>9.6585415303707123e-02</right_val></_></_>
        <_>
          <_>
            <feature>
              <rects>
                <_>
                  16 8 4 12 -1.</_>
                <_>
                  16 8 2 6 2.</_>
                <_>
                  18 14 2 6 2.</_></rects>
              <tilted>0</tilted></feature>
            <threshold>2.7128022164106369e-02</threshold>
            <left_val>-1.6887934505939484e-01</left_val>
            <right_val>3.9178180694580078e-01</right_val></_></_>
        <_>
          <_>
            <feature>
              <rects>
                <_>
                  6 16 7 3 -1.</_>
                <_>
                  6 17 7 1 3.</_></rects>
              <tilted>0</tilted></feature>
            <threshold>3.7358528934419155e-03</threshold>
            <left_val>-2.1117481589317322e-01</left_val>
            <right_val>2.9107424616813660e-01</right_val></_></_>
        <_>
          <_>
            <feature>
              <rects>
                <_>
                  12 5 2 1 -1.</_>
                <_>
                  13 5 1 1 2.</_></rects>
              <tilted>0</tilted></feature>
            <threshold>-3.4377451811451465e-05</threshold>
            <left_val>1.9724129140377045e-01</left_val>
            <right_val>-2.9093104600906372e-01</right_val></_></_>
        <_>
          <_>
            <feature>
              <rects>
                <_>
                  0 0 2 3 -1.</_>
                <_>
                  1 0 1 3 2.</_></rects>
              <tilted>0</tilted></feature>
            <threshold>8.0570357386022806e-04</threshold>
            <left_val>1.2829343974590302e-01</left_val>
            <right_val>-4.5793905854225159e-01</right_val></_></_>
        <_>
          <_>
            <feature>
              <rects>
                <_>
                  8 15 3 4 -1.</_>
                <_>
                  9 15 1 4 3.</_></rects>
              <tilted>0</tilted></feature>
            <threshold>4.9563171342015266e-03</threshold>
            <left_val>6.6309139132499695e-02</left_val>
            <right_val>-7.4630868434906006e-01</right_val></_></_>
        <_>
          <_>
            <feature>
              <rects>
                <_>
                  4 12 1 2 -1.</_>
                <_>
                  4 13 1 1 2.</_></rects>
              <tilted>0</tilted></feature>
            <threshold>-4.7459543566219509e-05</threshold>
            <left_val>1.8079587817192078e-01</left_val>
            <right_val>-2.8475758433341980e-01</right_val></_></_>
        <_>
          <_>
            <feature>
              <rects>
                <_>
                  11 4 3 2 -1.</_>
                <_>
                  12 4 1 2 3.</_></rects>
              <tilted>0</tilted></feature>
            <threshold>3.4374289680272341e-03</threshold>
            <left_val>6.3301809132099152e-02</left_val>
            <right_val>-7.6280647516250610e-01</right_val></_></_>
        <_>
          <_>
            <feature>
              <rects>
                <_>
                  3 11 1 3 -1.</_>
                <_>
                  3 12 1 1 3.</_></rects>
              <tilted>0</tilted></feature>
            <threshold>1.6299025155603886e-03</threshold>
            <left_val>7.2237834334373474e-02</left_val>
            <right_val>-5.3808259963989258e-01</right_val></_></_>
        <_>
          <_>
            <feature>
              <rects>
                <_>
                  4 2 12 14 -1.</_>
                <_>
                  8 2 4 14 3.</_></rects>
              <tilted>0</tilted></feature>
            <threshold>1.9234144687652588e-01</threshold>
            <left_val>6.4296722412109375e-02</left_val>
            <right_val>-6.1839354038238525e-01</right_val></_></_>
        <_>
          <_>
            <feature>
              <rects>
                <_>
                  7 6 2 1 -1.</_>
                <_>
                  8 6 1 1 2.</_></rects>
              <tilted>0</tilted></feature>
            <threshold>4.4879219785798341e-05</threshold>
            <left_val>-2.8822317719459534e-01</left_val>
            <right_val>1.5636263787746429e-01</right_val></_></_></trees>
      <stage_threshold>-2.1000669002532959e+00</stage_threshold>
      <parent>4</parent>
      <next>-1</next></_>
    <_>
      <trees>
        <_>
          <_>
            <feature>
              <rects>
                <_>
                  9 6 6 8 -1.</_>
                <_>
                  9 6 3 4 2.</_>
                <_>
                  12 10 3 4 2.</_></rects>
              <tilted>0</tilted></feature>
            <threshold>1.7488170415163040e-02</threshold>
            <left_val>-5.2010202407836914e-01</left_val>
            <right_val>4.8635807633399963e-01</right_val></_></_>
        <_>
          <_>
            <feature>
              <rects>
                <_>
                  4 1 10 6 -1.</_>
                <_>
                  4 3 10 2 3.</_></rects>
              <tilted>0</tilted></feature>
            <threshold>3.1518012285232544e-02</threshold>
            <left_val>-4.9696534872055054e-01</left_val>
            <right_val>4.0118044614791870e-01</right_val></_></_>
        <_>
          <_>
            <feature>
              <rects>
                <_>
                  1 17 18 2 -1.</_>
                <_>
                  7 17 6 2 3.</_></rects>
              <tilted>0</tilted></feature>
            <threshold>7.8664049506187439e-02</threshold>
            <left_val>-2.6732534170150757e-01</left_val>
            <right_val>6.3750398159027100e-01</right_val></_></_>
        <_>
          <_>
            <feature>
              <rects>
                <_>
                  2 7 9 6 -1.</_>
                <_>
                  2 10 9 3 2.</_></rects>
              <tilted>0</tilted></feature>
            <threshold>1.3167925179004669e-02</threshold>
            <left_val>-5.3925937414169312e-01</left_val>
            <right_val>2.7720066905021667e-01</right_val></_></_>
        <_>
          <_>
            <feature>
              <rects>
                <_>
                  0 0 4 10 -1.</_>
                <_>
                  0 0 2 5 2.</_>
                <_>
                  2 5 2 5 2.</_></rects>
              <tilted>0</tilted></feature>
            <threshold>1.7953164875507355e-02</threshold>
            <left_val>-3.0823573470115662e-01</left_val>
            <right_val>4.1444060206413269e-01</right_val></_></_>
        <_>
          <_>
            <feature>
              <rects>
                <_>
                  0 10 4 8 -1.</_>
                <_>
                  2 10 2 8 2.</_></rects>
              <tilted>0</tilted></feature>
            <threshold>-2.5291264057159424e-02</threshold>
            <left_val>5.1032608747482300e-01</left_val>
            <right_val>-2.4901290237903595e-01</right_val></_></_>
        <_>
          <_>
            <feature>
              <rects>
                <_>
                  7 6 7 12 -1.</_>
                <_>
                  7 12 7 6 2.</_></rects>
              <tilted>0</tilted></feature>
            <threshold>4.9651838839054108e-02</threshold>
            <left_val>1.6691927611827850e-01</left_val>
            <right_val>-7.3966789245605469e-01</right_val></_></_>
        <_>
          <_>
            <feature>
              <rects>
                <_>
                  16 0 4 8 -1.</_>
                <_>
                  16 0 2 4 2.</_>
                <_>
                  18 4 2 4 2.</_></rects>
              <tilted>0</tilted></feature>
            <threshold>-1.4636844396591187e-02</threshold>
            <left_val>3.8483604788780212e-01</left_val>
            <right_val>-2.7839371562004089e-01</right_val></_></_>
        <_>
          <_>
            <feature>
              <rects>
                <_>
                  19 0 1 2 -1.</_>
                <_>
                  19 1 1 1 2.</_></rects>
              <tilted>0</tilted></feature>
            <threshold>4.9275089986622334e-04</threshold>
            <left_val>1.2056791782379150e-01</left_val>
            <right_val>-6.2516546249389648e-01</right_val></_></_>
        <_>
          <_>
            <feature>
              <rects>
                <_>
                  9 10 2 10 -1.</_>
                <_>
                  9 15 2 5 2.</_></rects>
              <tilted>0</tilted></feature>
            <threshold>6.7408531904220581e-03</threshold>
            <left_val>9.8509319126605988e-02</left_val>
            <right_val>-6.1189490556716919e-01</right_val></_></_>
        <_>
          <_>
            <feature>
              <rects>
                <_>
                  1 5 18 1 -1.</_>
                <_>
                  7 5 6 1 3.</_></rects>
              <tilted>0</tilted></feature>
            <threshold>2.4668246507644653e-02</threshold>
            <left_val>-2.8924152255058289e-01</left_val>
            <right_val>2.3870028555393219e-01</right_val></_></_>
        <_>
          <_>
            <feature>
              <rects>
                <_>
                  18 3 2 12 -1.</_>
                <_>
                  19 3 1 12 2.</_></rects>
              <tilted>0</tilted></feature>
            <threshold>1.6391221433877945e-02</threshold>
            <left_val>-1.5593710541725159e-01</left_val>
            <right_val>4.5964378118515015e-01</right_val></_></_>
        <_>
          <_>
            <feature>
              <rects>
                <_>
                  9 17 3 3 -1.</_>
                <_>
                  10 17 1 3 3.</_></rects>
              <tilted>0</tilted></feature>
            <threshold>-2.5783572345972061e-03</threshold>
            <left_val>-6.7173552513122559e-01</left_val>
            <right_val>1.0775726288557053e-01</right_val></_></_>
        <_>
          <_>
            <feature>
              <rects>
                <_>
                  2 7 17 6 -1.</_>
                <_>
                  2 9 17 2 3.</_></rects>
              <tilted>0</tilted></feature>
            <threshold>3.3704910427331924e-02</threshold>
            <left_val>-2.5268533825874329e-01</left_val>
            <right_val>2.7218407392501831e-01</right_val></_></_>
        <_>
          <_>
            <feature>
              <rects>
                <_>
                  4 4 13 6 -1.</_>
                <_>
                  4 6 13 2 3.</_></rects>
              <tilted>0</tilted></feature>
            <threshold>3.5509563982486725e-02</threshold>
            <left_val>-1.3758483529090881e-01</left_val>
            <right_val>5.4982829093933105e-01</right_val></_></_>
        <_>
          <_>
            <feature>
              <rects>
                <_>
                  5 5 7 12 -1.</_>
                <_>
                  5 11 7 6 2.</_></rects>
              <tilted>0</tilted></feature>
            <threshold>-5.2032813429832458e-02</threshold>
            <left_val>-5.6051683425903320e-01</left_val>
            <right_val>1.2794730067253113e-01</right_val></_></_>
        <_>
          <_>
            <feature>
              <rects>
                <_>
                  5 14 10 6 -1.</_>
                <_>
                  5 16 10 2 3.</_></rects>
              <tilted>0</tilted></feature>
            <threshold>1.0066714137792587e-02</threshold>
            <left_val>-2.6513463258743286e-01</left_val>
            <right_val>2.2153809666633606e-01</right_val></_></_>
        <_>
          <_>
            <feature>
              <rects>
                <_>
                  7 1 3 4 -1.</_>
                <_>
                  8 1 1 4 3.</_></rects>
              <tilted>0</tilted></feature>
            <threshold>-3.1031323596835136e-03</threshold>
            <left_val>-6.5871715545654297e-01</left_val>
            <right_val>9.1296128928661346e-02</right_val></_></_>
        <_>
          <_>
            <feature>
              <rects>
                <_>
                  7 0 3 5 -1.</_>
                <_>
                  8 0 1 5 3.</_></rects>
              <tilted>0</tilted></feature>
            <threshold>4.7254739329218864e-03</threshold>
            <left_val>8.4782794117927551e-02</left_val>
            <right_val>-6.7964702844619751e-01</right_val></_></_>
        <_>
          <_>
            <feature>
              <rects>
                <_>
                  10 8 3 3 -1.</_>
                <_>
                  11 8 1 3 3.</_></rects>
              <tilted>0</tilted></feature>
            <threshold>-1.6686958260834217e-03</threshold>
            <left_val>3.1174743175506592e-01</left_val>
            <right_val>-1.9964258372783661e-01</right_val></_></_>
        <_>
          <_>
            <feature>
              <rects>
                <_>
                  0 0 1 2 -1.</_>
                <_>
                  0 1 1 1 2.</_></rects>
              <tilted>0</tilted></feature>
            <threshold>5.1492900820448995e-04</threshold>
            <left_val>9.7537867724895477e-02</left_val>
            <right_val>-5.4160469770431519e-01</right_val></_></_>
        <_>
          <_>
            <feature>
              <rects>
                <_>
                  2 11 6 2 -1.</_>
                <_>
                  4 11 2 2 3.</_></rects>
              <tilted>0</tilted></feature>
            <threshold>1.9560307264328003e-03</threshold>
            <left_val>-2.6943841576576233e-01</left_val>
            <right_val>1.9060260057449341e-01</right_val></_></_>
        <_>
          <_>
            <feature>
              <rects>
                <_>
                  17 5 3 5 -1.</_>
                <_>
                  18 5 1 5 3.</_></rects>
              <tilted>0</tilted></feature>
            <threshold>8.7779201567173004e-03</threshold>
            <left_val>-1.0574895143508911e-01</left_val>
            <right_val>5.0715374946594238e-01</right_val></_></_>
        <_>
          <_>
            <feature>
              <rects>
                <_>
                  14 4 6 13 -1.</_>
                <_>
                  17 4 3 13 2.</_></rects>
              <tilted>0</tilted></feature>
            <threshold>-7.8357025980949402e-02</threshold>
            <left_val>3.3439940214157104e-01</left_val>
            <right_val>-1.4241254329681396e-01</right_val></_></_>
        <_>
          <_>
            <feature>
              <rects>
                <_>
                  14 14 6 5 -1.</_>
                <_>
                  17 14 3 5 2.</_></rects>
              <tilted>0</tilted></feature>
            <threshold>4.0813844650983810e-02</threshold>
            <left_val>-1.1787891387939453e-01</left_val>
            <right_val>4.5931911468505859e-01</right_val></_></_>
        <_>
          <_>
            <feature>
              <rects>
                <_>
                  9 18 3 2 -1.</_>
                <_>
                  10 18 1 2 3.</_></rects>
              <tilted>0</tilted></feature>
            <threshold>2.4817213416099548e-03</threshold>
            <left_val>8.2699544727802277e-02</left_val>
            <right_val>-6.4817422628402710e-01</right_val></_></_>
        <_>
          <_>
            <feature>
              <rects>
                <_>
                  5 0 3 7 -1.</_>
                <_>
                  6 0 1 7 3.</_></rects>
              <tilted>0</tilted></feature>
            <threshold>5.0678197294473648e-03</threshold>
            <left_val>6.5708309412002563e-02</left_val>
            <right_val>-6.0641825199127197e-01</right_val></_></_>
        <_>
          <_>
            <feature>
              <rects>
                <_>
                  5 0 3 7 -1.</_>
                <_>
                  6 0 1 7 3.</_></rects>
              <tilted>0</tilted></feature>
            <threshold>-8.5942614823579788e-03</threshold>
            <left_val>-7.3611581325531006e-01</left_val>
            <right_val>5.4818201810121536e-02</right_val></_></_>
        <_>
          <_>
            <feature>
              <rects>
                <_>
                  11 2 4 6 -1.</_>
                <_>
                  11 4 4 2 3.</_></rects>
              <tilted>0</tilted></feature>
            <threshold>7.4787577614188194e-03</threshold>
            <left_val>-2.3284640908241272e-01</left_val>
            <right_val>1.9455111026763916e-01</right_val></_></_>
        <_>
          <_>
            <feature>
              <rects>
                <_>
                  0 7 20 6 -1.</_>
                <_>
                  0 7 10 3 2.</_>
                <_>
                  10 10 10 3 2.</_></rects>
              <tilted>0</tilted></feature>
            <threshold>-5.7160373777151108e-02</threshold>
            <left_val>-6.6677463054656982e-01</left_val>
            <right_val>6.0929741710424423e-02</right_val></_></_>
        <_>
          <_>
            <feature>
              <rects>
                <_>
                  16 5 4 6 -1.</_>
                <_>
                  16 7 4 2 3.</_></rects>
              <tilted>0</tilted></feature>
            <threshold>-2.2663256153464317e-02</threshold>
            <left_val>-5.4260182380676270e-01</left_val>
            <right_val>7.0399910211563110e-02</right_val></_></_></trees>
      <stage_threshold>-1.9996292591094971e+00</stage_threshold>
      <parent>5</parent>
      <next>-1</next></_>
    <_>
      <trees>
        <_>
          <_>
            <feature>
              <rects>
                <_>
                  5 6 6 8 -1.</_>
                <_>
                  5 6 3 4 2.</_>
                <_>
                  8 10 3 4 2.</_></rects>
              <tilted>0</tilted></feature>
            <threshold>-1.7850305885076523e-02</threshold>
            <left_val>4.7025522589683533e-01</left_val>
            <right_val>-5.0637549161911011e-01</right_val></_></_>
        <_>
          <_>
            <feature>
              <rects>
                <_>
                  1 3 8 2 -1.</_>
                <_>
                  5 3 4 2 2.</_></rects>
              <tilted>0</tilted></feature>
            <threshold>2.2122509777545929e-02</threshold>
            <left_val>-4.1775315999984741e-01</left_val>
            <right_val>4.7142478823661804e-01</right_val></_></_>
        <_>
          <_>
            <feature>
              <rects>
                <_>
                  9 7 8 6 -1.</_>
                <_>
                  9 10 8 3 2.</_></rects>
              <tilted>0</tilted></feature>
            <threshold>1.2053101323544979e-02</threshold>
            <left_val>-5.6993967294692993e-01</left_val>
            <right_val>2.7722519636154175e-01</right_val></_></_>
        <_>
          <_>
            <feature>
              <rects>
                <_>
                  16 0 4 10 -1.</_>
                <_>
                  16 0 2 5 2.</_>
                <_>
                  18 5 2 5 2.</_></rects>
              <tilted>0</tilted></feature>
            <threshold>-2.3668192327022552e-02</threshold>
            <left_val>4.5396879315376282e-01</left_val>
            <right_val>-2.8088939189910889e-01</right_val></_></_>
        <_>
          <_>
            <feature>
              <rects>
                <_>
                  1 17 18 2 -1.</_>
                <_>
                  7 17 6 2 3.</_></rects>
              <tilted>0</tilted></feature>
            <threshold>8.4539428353309631e-02</threshold>
            <left_val>-1.8637073040008545e-01</left_val>
            <right_val>5.6869798898696899e-01</right_val></_></_>
        <_>
          <_>
            <feature>
              <rects>
                <_>
                  0 0 2 20 -1.</_>
                <_>
                  1 0 1 20 2.</_></rects>
              <tilted>0</tilted></feature>
            <threshold>-1.8502142280340195e-02</threshold>
            <left_val>4.7718542814254761e-01</left_val>
            <right_val>-2.5406447052955627e-01</right_val></_></_>
        <_>
          <_>
            <feature>
              <rects>
                <_>
                  4 0 12 6 -1.</_>
                <_>
                  4 3 12 3 2.</_></rects>
              <tilted>0</tilted></feature>
            <threshold>1.0585528612136841e-01</threshold>
            <left_val>-1.6695538163185120e-01</left_val>
            <right_val>4.7685000300407410e-01</right_val></_></_>
        <_>
          <_>
            <feature>
              <rects>
                <_>
                  18 0 2 15 -1.</_>
                <_>
                  19 0 1 15 2.</_></rects>
              <tilted>0</tilted></feature>
            <threshold>2.3482389748096466e-02</threshold>
            <left_val>-1.3313294947147369e-01</left_val>
            <right_val>5.1166474819183350e-01</right_val></_></_>
        <_>
          <_>
            <feature>
              <rects>
                <_>
                  0 3 4 10 -1.</_>
                <_>
                  2 3 2 10 2.</_></rects>
              <tilted>0</tilted></feature>
            <threshold>3.7201516330242157e-02</threshold>
            <left_val>-1.5867415070533752e-01</left_val>
            <right_val>4.4333705306053162e-01</right_val></_></_>
        <_>
          <_>
            <feature>
              <rects>
                <_>
                  0 11 6 8 -1.</_>
                <_>
                  3 11 3 8 2.</_></rects>
              <tilted>0</tilted></feature>
            <threshold>-5.3274549543857574e-02</threshold>
            <left_val>5.1424664258956909e-01</left_val>
            <right_val>-1.5425057709217072e-01</right_val></_></_>
        <_>
          <_>
            <feature>
              <rects>
                <_>
                  2 5 8 15 -1.</_>
                <_>
                  2 10 8 5 3.</_></rects>
              <tilted>0</tilted></feature>
            <threshold>3.1575407832860947e-02</threshold>
            <left_val>-4.1904279589653015e-01</left_val>
            <right_val>1.9566620886325836e-01</right_val></_></_>
        <_>
          <_>
            <feature>
              <rects>
                <_>
                  14 10 6 7 -1.</_>
                <_>
                  17 10 3 7 2.</_></rects>
              <tilted>0</tilted></feature>
            <threshold>-7.4773810803890228e-02</threshold>
            <left_val>4.4198742508888245e-01</left_val>
            <right_val>-1.5795236825942993e-01</right_val></_></_>
        <_>
          <_>
            <feature>
              <rects>
                <_>
                  6 0 3 7 -1.</_>
                <_>
                  7 0 1 7 3.</_></rects>
              <tilted>0</tilted></feature>
            <threshold>5.6856535375118256e-03</threshold>
            <left_val>9.5768764615058899e-02</left_val>
            <right_val>-7.1416968107223511e-01</right_val></_></_>
        <_>
          <_>
            <feature>
              <rects>
                <_>
                  0 0 6 4 -1.</_>
                <_>
                  3 0 3 4 2.</_></rects>
              <tilted>0</tilted></feature>
            <threshold>-3.8550574332475662e-02</threshold>
            <left_val>4.5129776000976562e-01</left_val>
            <right_val>-1.4761635661125183e-01</right_val></_></_>
        <_>
          <_>
            <feature>
              <rects>
                <_>
                  10 3 4 7 -1.</_>
                <_>
                  12 3 2 7 2.</_></rects>
              <tilted>0</tilted></feature>
            <threshold>-6.5131327137351036e-03</threshold>
            <left_val>2.0905342698097229e-01</left_val>
            <right_val>-3.2566785812377930e-01</right_val></_></_>
        <_>
          <_>
            <feature>
              <rects>
                <_>
                  6 0 3 6 -1.</_>
                <_>
                  7 0 1 6 3.</_></rects>
              <tilted>0</tilted></feature>
            <threshold>-5.7932054623961449e-03</threshold>
            <left_val>-7.5131136178970337e-01</left_val>
            <right_val>7.5844518840312958e-02</right_val></_></_>
        <_>
          <_>
            <feature>
              <rects>
                <_>
                  15 11 1 2 -1.</_>
                <_>
                  15 12 1 1 2.</_></rects>
              <tilted>0</tilted></feature>
            <threshold>-3.7207300920272246e-05</threshold>
            <left_val>1.9803810119628906e-01</left_val>
            <right_val>-2.6961615681648254e-01</right_val></_></_>
        <_>
          <_>
            <feature>
              <rects>
                <_>
                  12 0 3 7 -1.</_>
                <_>
                  13 0 1 7 3.</_></rects>
              <tilted>0</tilted></feature>
            <threshold>-8.2548558712005615e-03</threshold>
            <left_val>-7.8213214874267578e-01</left_val>
            <right_val>5.8779835700988770e-02</right_val></_></_>
        <_>
          <_>
            <feature>
              <rects>
                <_>
                  7 6 3 5 -1.</_>
                <_>
                  8 6 1 5 3.</_></rects>
              <tilted>0</tilted></feature>
            <threshold>-1.1892607435584068e-03</threshold>
            <left_val>2.5132659077644348e-01</left_val>
            <right_val>-2.0540328323841095e-01</right_val></_></_>
        <_>
          <_>
            <feature>
              <rects>
                <_>
                  3 8 14 8 -1.</_>
                <_>
                  3 8 7 4 2.</_>
                <_>
                  10 12 7 4 2.</_></rects>
              <tilted>0</tilted></feature>
            <threshold>-4.4063769280910492e-02</threshold>
            <left_val>-6.4282351732254028e-01</left_val>
            <right_val>8.9248798787593842e-02</right_val></_></_>
        <_>
          <_>
            <feature>
              <rects>
                <_>
                  4 9 12 8 -1.</_>
                <_>
                  4 9 6 4 2.</_>
                <_>
                  10 13 6 4 2.</_></rects>
              <tilted>0</tilted></feature>
            <threshold>2.9906023293733597e-02</threshold>
            <left_val>8.2791216671466827e-02</left_val>
            <right_val>-5.7575160264968872e-01</right_val></_></_>
        <_>
          <_>
            <feature>
              <rects>
                <_>
                  4 4 12 6 -1.</_>
                <_>
                  4 6 12 2 3.</_></rects>
              <tilted>0</tilted></feature>
            <threshold>3.8083896040916443e-02</threshold>
            <left_val>-1.2142901867628098e-01</left_val>
            <right_val>4.6249556541442871e-01</right_val></_></_>
        <_>
          <_>
            <feature>
              <rects>
                <_>
                  4 8 13 3 -1.</_>
                <_>
                  4 9 13 1 3.</_></rects>
              <tilted>0</tilted></feature>
            <threshold>3.5748935770243406e-03</threshold>
            <left_val>-2.3151551187038422e-01</left_val>
            <right_val>2.8557229042053223e-01</right_val></_></_>
        <_>
          <_>
            <feature>
              <rects>
                <_>
                  11 1 3 6 -1.</_>
                <_>
                  12 1 1 6 3.</_></rects>
              <tilted>0</tilted></feature>
            <threshold>-7.0662442594766617e-03</threshold>
            <left_val>-8.1545025110244751e-01</left_val>
            <right_val>5.9957265853881836e-02</right_val></_></_>
        <_>
          <_>
            <feature>
              <rects>
                <_>
                  13 0 3 7 -1.</_>
                <_>
                  14 0 1 7 3.</_></rects>
              <tilted>0</tilted></feature>
            <threshold>-7.1125663816928864e-03</threshold>
            <left_val>-6.3791990280151367e-01</left_val>
            <right_val>6.1301268637180328e-02</right_val></_></_>
        <_>
          <_>
            <feature>
              <rects>
                <_>
                  8 16 4 3 -1.</_>
                <_>
                  8 17 4 1 3.</_></rects>
              <tilted>0</tilted></feature>
            <threshold>2.6887329295277596e-03</threshold>
            <left_val>-2.0740044116973877e-01</left_val>
            <right_val>2.3945307731628418e-01</right_val></_></_>
        <_>
          <_>
            <feature>
              <rects>
                <_>
                  19 1 1 6 -1.</_>
                <_>
                  19 3 1 2 3.</_></rects>
              <tilted>0</tilted></feature>
            <threshold>4.0362803265452385e-03</threshold>
            <left_val>9.9498741328716278e-02</left_val>
            <right_val>-4.9840581417083740e-01</right_val></_></_>
        <_>
          <_>
            <feature>
              <rects>
                <_>
                  5 0 11 6 -1.</_>
                <_>
                  5 2 11 2 3.</_></rects>
              <tilted>0</tilted></feature>
            <threshold>3.7439066916704178e-02</threshold>
            <left_val>-1.4527019858360291e-01</left_val>
            <right_val>3.3549425005912781e-01</right_val></_></_>
        <_>
          <_>
            <feature>
              <rects>
                <_>
                  1 0 18 3 -1.</_>
                <_>
                  7 0 6 3 3.</_></rects>
              <tilted>0</tilted></feature>
            <threshold>-9.8147541284561157e-02</threshold>
            <left_val>5.4997873306274414e-01</left_val>
            <right_val>-1.0442476719617844e-01</right_val></_></_>
        <_>
          <_>
            <feature>
              <rects>
                <_>
                  10 13 1 6 -1.</_>
                <_>
                  10 16 1 3 2.</_></rects>
              <tilted>0</tilted></feature>
            <threshold>7.3586730286478996e-03</threshold>
            <left_val>7.2265736758708954e-02</left_val>
            <right_val>-7.7145487070083618e-01</right_val></_></_>
        <_>
          <_>
            <feature>
              <rects>
                <_>
                  10 15 1 2 -1.</_>
                <_>
                  10 16 1 1 2.</_></rects>
              <tilted>0</tilted></feature>
            <threshold>2.7346378192305565e-04</threshold>
            <left_val>-2.1729993820190430e-01</left_val>
            <right_val>2.4819210171699524e-01</right_val></_></_>
        <_>
          <_>
            <feature>
              <rects>
                <_>
                  8 9 4 2 -1.</_>
                <_>
                  8 10 4 1 2.</_></rects>
              <tilted>0</tilted></feature>
            <threshold>3.9533275412395597e-05</threshold>
            <left_val>-2.6926493644714355e-01</left_val>
            <right_val>1.7039887607097626e-01</right_val></_></_>
        <_>
          <_>
            <feature>
              <rects>
                <_>
                  8 5 5 10 -1.</_>
                <_>
                  8 10 5 5 2.</_></rects>
              <tilted>0</tilted></feature>
            <threshold>4.1791580617427826e-02</threshold>
            <left_val>1.0430849343538284e-01</left_val>
            <right_val>-5.5940985679626465e-01</right_val></_></_>
        <_>
          <_>
            <feature>
              <rects>
                <_>
                  0 1 1 2 -1.</_>
                <_>
                  0 2 1 1 2.</_></rects>
              <tilted>0</tilted></feature>
            <threshold>8.1375369336456060e-04</threshold>
            <left_val>6.4943678677082062e-02</left_val>
            <right_val>-5.8412253856658936e-01</right_val></_></_>
        <_>
          <_>
            <feature>
              <rects>
                <_>
                  9 17 3 3 -1.</_>
                <_>
                  9 18 3 1 3.</_></rects>
              <tilted>0</tilted></feature>
            <threshold>2.5374707765877247e-03</threshold>
            <left_val>-1.5476584434509277e-01</left_val>
            <right_val>2.9162290692329407e-01</right_val></_></_></trees>
      <stage_threshold>-2.0137355327606201e+00</stage_threshold>
      <parent>6</parent>
      <next>-1</next></_>
    <_>
      <trees>
        <_>
          <_>
            <feature>
              <rects>
                <_>
                  6 2 9 8 -1.</_>
                <_>
                  9 2 3 8 3.</_></rects>
              <tilted>0</tilted></feature>
            <threshold>4.1954316198825836e-02</threshold>
            <left_val>-5.4676771163940430e-01</left_val>
            <right_val>4.6254777908325195e-01</right_val></_></_>
        <_>
          <_>
            <feature>
              <rects>
                <_>
                  5 4 10 9 -1.</_>
                <_>
                  5 7 10 3 3.</_></rects>
              <tilted>0</tilted></feature>
            <threshold>-4.6519458293914795e-02</threshold>
            <left_val>3.8683879375457764e-01</left_val>
            <right_val>-4.9084770679473877e-01</right_val></_></_>
        <_>
          <_>
            <feature>
              <rects>
                <_>
                  10 12 6 8 -1.</_>
                <_>
                  10 12 3 4 2.</_>
                <_>
                  13 16 3 4 2.</_></rects>
              <tilted>0</tilted></feature>
            <threshold>-7.7000129967927933e-03</threshold>
            <left_val>3.2761409878730774e-01</left_val>
            <right_val>-4.2846021056175232e-01</right_val></_></_>
        <_>
          <_>
            <feature>
              <rects>
                <_>
                  0 0 6 4 -1.</_>
                <_>
                  0 0 3 2 2.</_>
                <_>
                  3 2 3 2 2.</_></rects>
              <tilted>0</tilted></feature>
            <threshold>9.1579779982566833e-03</threshold>
            <left_val>-3.0152186751365662e-01</left_val>
            <right_val>3.9345768094062805e-01</right_val></_></_>
        <_>
          <_>
            <feature>
              <rects>
                <_>
                  17 0 3 15 -1.</_>
                <_>
                  18 0 1 15 3.</_></rects>
              <tilted>0</tilted></feature>
            <threshold>-1.2340996414422989e-02</threshold>
            <left_val>3.8310641050338745e-01</left_val>
            <right_val>-2.7269461750984192e-01</right_val></_></_>
        <_>
          <_>
            <feature>
              <rects>
                <_>
                  4 2 1 14 -1.</_>
                <_>
                  4 9 1 7 2.</_></rects>
              <tilted>0</tilted></feature>
            <threshold>4.1580600664019585e-03</threshold>
            <left_val>-4.8157697916030884e-01</left_val>
            <right_val>1.4438323676586151e-01</right_val></_></_>
        <_>
          <_>
            <feature>
              <rects>
                <_>
                  5 10 3 6 -1.</_>
                <_>
                  5 13 3 3 2.</_></rects>
              <tilted>0</tilted></feature>
            <threshold>-7.2574068326503038e-04</threshold>
            <left_val>1.8104740977287292e-01</left_val>
            <right_val>-4.3696793913841248e-01</right_val></_></_>
        <_>
          <_>
            <feature>
              <rects>
                <_>
                  0 14 8 4 -1.</_>
                <_>
                  4 14 4 4 2.</_></rects>
              <tilted>0</tilted></feature>
            <threshold>4.7805391252040863e-02</threshold>
            <left_val>-1.7544616758823395e-01</left_val>
            <right_val>4.4590142369270325e-01</right_val></_></_>
        <_>
          <_>
            <feature>
              <rects>
                <_>
                  0 11 4 8 -1.</_>
                <_>
                  2 11 2 8 2.</_></rects>
              <tilted>0</tilted></feature>
            <threshold>-1.6034264117479324e-02</threshold>
            <left_val>3.7482956051826477e-01</left_val>
            <right_val>-2.3671130836009979e-01</right_val></_></_>
        <_>
          <_>
            <feature>
              <rects>
                <_>
                  10 16 3 4 -1.</_>
                <_>
                  11 16 1 4 3.</_></rects>
              <tilted>0</tilted></feature>
            <threshold>4.6514831483364105e-03</threshold>
            <left_val>1.1535359919071198e-01</left_val>
            <right_val>-7.5696116685867310e-01</right_val></_></_>
        <_>
          <_>
            <feature>
              <rects>
                <_>
                  12 0 8 4 -1.</_>
                <_>
                  12 0 4 2 2.</_>
                <_>
                  16 2 4 2 2.</_></rects>
              <tilted>0</tilted></feature>
            <threshold>-2.5011889636516571e-02</threshold>
            <left_val>3.7961220741271973e-01</left_val>
            <right_val>-1.8725997209548950e-01</right_val></_></_>
        <_>
          <_>
            <feature>
              <rects>
                <_>
                  5 1 10 8 -1.</_>
                <_>
                  5 5 10 4 2.</_></rects>
              <tilted>0</tilted></feature>
            <threshold>1.0533861815929413e-01</threshold>
            <left_val>-1.2332943826913834e-01</left_val>
            <right_val>4.4607296586036682e-01</right_val></_></_>
        <_>
          <_>
            <feature>
              <rects>
                <_>
                  12 7 4 6 -1.</_>
                <_>
                  12 9 4 2 3.</_></rects>
              <tilted>0</tilted></feature>
            <threshold>9.2673096805810928e-03</threshold>
            <left_val>-2.7812409400939941e-01</left_val>
            <right_val>2.7709424495697021e-01</right_val></_></_>
        <_>
          <_>
            <feature>
              <rects>
                <_>
                  16 3 4 5 -1.</_>
                <_>
                  18 3 2 5 2.</_></rects>
              <tilted>0</tilted></feature>
            <threshold>4.0661871433258057e-02</threshold>
            <left_val>-9.1006226837635040e-02</left_val>
            <right_val>6.4289313554763794e-01</right_val></_></_>
        <_>
          <_>
            <feature>
              <rects>
                <_>
                  0 5 4 8 -1.</_>
                <_>
                  2 5 2 8 2.</_></rects>
              <tilted>0</tilted></feature>
            <threshold>2.3572523146867752e-02</threshold>
            <left_val>-1.8938292562961578e-01</left_val>
            <right_val>3.3455273509025574e-01</right_val></_></_>
        <_>
          <_>
            <feature>
              <rects>
                <_>
                  8 0 3 5 -1.</_>
                <_>
                  9 0 1 5 3.</_></rects>
              <tilted>0</tilted></feature>
            <threshold>4.5727025717496872e-03</threshold>
            <left_val>8.0905757844448090e-02</left_val>
            <right_val>-6.7942583560943604e-01</right_val></_></_>
        <_>
          <_>
            <feature>
              <rects>
                <_>
                  0 3 2 9 -1.</_>
                <_>
                  1 3 1 9 2.</_></rects>
              <tilted>0</tilted></feature>
            <threshold>-1.1937336996197701e-02</threshold>
            <left_val>3.7985733151435852e-01</left_val>
            <right_val>-1.5110573172569275e-01</right_val></_></_>
        <_>
          <_>
            <feature>
              <rects>
                <_>
                  15 12 1 2 -1.</_>
                <_>
                  15 13 1 1 2.</_></rects>
              <tilted>0</tilted></feature>
            <threshold>-3.8939826481509954e-05</threshold>
            <left_val>1.9188231229782104e-01</left_val>
            <right_val>-2.8830710053443909e-01</right_val></_></_>
        <_>
          <_>
            <feature>
              <rects>
                <_>
                  12 16 8 2 -1.</_>
                <_>
                  16 16 4 2 2.</_></rects>
              <tilted>0</tilted></feature>
            <threshold>-2.7483053505420685e-02</threshold>
            <left_val>3.8943502306938171e-01</left_val>
            <right_val>-1.4317013323307037e-01</right_val></_></_>
        <_>
          <_>
            <feature>
              <rects>
                <_>
                  12 14 8 4 -1.</_>
                <_>
                  16 14 4 4 2.</_></rects>
              <tilted>0</tilted></feature>
            <threshold>4.2507354170084000e-02</threshold>
            <left_val>-1.1741410195827484e-01</left_val>
            <right_val>4.7727721929550171e-01</right_val></_></_>
        <_>
          <_>
            <feature>
              <rects>
                <_>
                  9 12 1 8 -1.</_>
                <_>
                  9 16 1 4 2.</_></rects>
              <tilted>0</tilted></feature>
            <threshold>6.1526363715529442e-03</threshold>
            <left_val>8.0226399004459381e-02</left_val>
            <right_val>-6.4739167690277100e-01</right_val></_></_>
        <_>
          <_>
            <feature>
              <rects>
                <_>
                  5 16 4 2 -1.</_>
                <_>
                  5 16 2 1 2.</_>
                <_>
                  7 17 2 1 2.</_></rects>
              <tilted>0</tilted></feature>
            <threshold>8.9387339539825916e-04</threshold>
            <left_val>-2.0457507669925690e-01</left_val>
            <right_val>2.3568032681941986e-01</right_val></_></_>
        <_>
          <_>
            <feature>
              <rects>
                <_>
                  8 3 3 2 -1.</_>
                <_>
                  9 3 1 2 3.</_></rects>
              <tilted>0</tilted></feature>
            <threshold>-1.0472714202478528e-03</threshold>
            <left_val>-4.8713597655296326e-01</left_val>
            <right_val>9.2500388622283936e-02</right_val></_></_>
        <_>
          <_>
            <feature>
              <rects>
                <_>
                  5 10 10 6 -1.</_>
                <_>
                  5 10 5 3 2.</_>
                <_>
                  10 13 5 3 2.</_></rects>
              <tilted>0</tilted></feature>
            <threshold>-2.1534387022256851e-02</threshold>
            <left_val>-5.7612597942352295e-01</left_val>
            <right_val>6.3973017036914825e-02</right_val></_></_>
        <_>
          <_>
            <feature>
              <rects>
                <_>
                  6 11 3 6 -1.</_>
                <_>
                  6 14 3 3 2.</_></rects>
              <tilted>0</tilted></feature>
            <threshold>-2.3350592702627182e-02</threshold>
            <left_val>-6.0228526592254639e-01</left_val>
            <right_val>6.5310843288898468e-02</right_val></_></_>
        <_>
          <_>
            <feature>
              <rects>
                <_>
                  9 10 6 3 -1.</_>
                <_>
                  9 11 6 1 3.</_></rects>
              <tilted>0</tilted></feature>
            <threshold>1.9821082241833210e-03</threshold>
            <left_val>-2.3443008959293365e-01</left_val>
            <right_val>2.1448484063148499e-01</right_val></_></_>
        <_>
          <_>
            <feature>
              <rects>
                <_>
                  18 6 2 6 -1.</_>
                <_>
                  19 6 1 6 2.</_></rects>
              <tilted>0</tilted></feature>
            <threshold>-7.1583944372832775e-03</threshold>
            <left_val>3.7795594334602356e-01</left_val>
            <right_val>-1.1190994828939438e-01</right_val></_></_>
        <_>
          <_>
            <feature>
              <rects>
                <_>
                  18 0 2 2 -1.</_>
                <_>
                  19 0 1 2 2.</_></rects>
              <tilted>0</tilted></feature>
            <threshold>-6.3814723398536444e-04</threshold>
            <left_val>-4.1991373896598816e-01</left_val>
            <right_val>1.0241814702749252e-01</right_val></_></_>
        <_>
          <_>
            <feature>
              <rects>
                <_>
                  18 5 2 3 -1.</_>
                <_>
                  18 6 2 1 3.</_></rects>
              <tilted>0</tilted></feature>
            <threshold>3.2466871198266745e-03</threshold>
            <left_val>6.0536902397871017e-02</left_val>
            <right_val>-5.9647357463836670e-01</right_val></_></_>
        <_>
          <_>
            <feature>
              <rects>
                <_>
                  10 3 2 6 -1.</_>
                <_>
                  11 3 1 6 2.</_></rects>
              <tilted>0</tilted></feature>
            <threshold>-2.0897071808576584e-03</threshold>
            <left_val>1.8212482333183289e-01</left_val>
            <right_val>-2.0562973618507385e-01</right_val></_></_>
        <_>
          <_>
            <feature>
              <rects>
                <_>
                  9 1 3 4 -1.</_>
                <_>
                  10 1 1 4 3.</_></rects>
              <tilted>0</tilted></feature>
            <threshold>3.9664432406425476e-03</threshold>
            <left_val>7.2061263024806976e-02</left_val>
            <right_val>-5.9545117616653442e-01</right_val></_></_>
        <_>
          <_>
            <feature>
              <rects>
                <_>
                  7 14 3 5 -1.</_>
                <_>
                  8 14 1 5 3.</_></rects>
              <tilted>0</tilted></feature>
            <threshold>6.8621197715401649e-03</threshold>
            <left_val>3.7957929074764252e-02</left_val>
            <right_val>-7.6591742038726807e-01</right_val></_></_>
        <_>
          <_>
            <feature>
              <rects>
                <_>
                  7 15 2 3 -1.</_>
                <_>
                  7 16 2 1 3.</_></rects>
              <tilted>0</tilted></feature>
            <threshold>8.2194211427122355e-04</threshold>
            <left_val>-1.7419154942035675e-01</left_val>
            <right_val>2.1777495741844177e-01</right_val></_></_>
        <_>
          <_>
            <feature>
              <rects>
                <_>
                  7 14 5 3 -1.</_>
                <_>
                  7 15 5 1 3.</_></rects>
              <tilted>0</tilted></feature>
            <threshold>3.9084916934370995e-03</threshold>
            <left_val>-1.1095619946718216e-01</left_val>
            <right_val>3.5018414258956909e-01</right_val></_></_>
        <_>
          <_>
            <feature>
              <rects>
                <_>
                  14 12 4 3 -1.</_>
                <_>
                  14 13 4 1 3.</_></rects>
              <tilted>0</tilted></feature>
            <threshold>-7.5805140659213066e-03</threshold>
            <left_val>-7.0339208841323853e-01</left_val>
            <right_val>5.7139143347740173e-02</right_val></_></_>
        <_>
          <_>
            <feature>
              <rects>
                <_>
                  8 14 5 3 -1.</_>
                <_>
                  8 15 5 1 3.</_></rects>
              <tilted>0</tilted></feature>
            <threshold>-4.5495186932384968e-03</threshold>
            <left_val>2.9563438892364502e-01</left_val>
            <right_val>-1.3452839851379395e-01</right_val></_></_>
        <_>
          <_>
            <feature>
              <rects>
                <_>
                  7 5 8 15 -1.</_>
                <_>
                  7 10 8 5 3.</_></rects>
              <tilted>0</tilted></feature>
            <threshold>1.8074870109558105e-01</threshold>
            <left_val>6.3948988914489746e-02</left_val>
            <right_val>-6.3782966136932373e-01</right_val></_></_>
        <_>
          <_>
            <feature>
              <rects>
                <_>
                  3 8 15 4 -1.</_>
                <_>
                  8 8 5 4 3.</_></rects>
              <tilted>0</tilted></feature>
            <threshold>-5.9012569487094879e-02</threshold>
            <left_val>-7.0414030551910400e-01</left_val>
            <right_val>4.3196327984333038e-02</right_val></_></_>
        <_>
          <_>
            <feature>
              <rects>
                <_>
                  9 7 3 4 -1.</_>
                <_>
                  10 7 1 4 3.</_></rects>
              <tilted>0</tilted></feature>
            <threshold>-1.4644584152847528e-03</threshold>
            <left_val>3.1875774264335632e-01</left_val>
            <right_val>-1.3890486955642700e-01</right_val></_></_>
        <_>
          <_>
            <feature>
              <rects>
                <_>
                  8 7 3 4 -1.</_>
                <_>
                  9 7 1 4 3.</_></rects>
              <tilted>0</tilted></feature>
            <threshold>-2.4594399146735668e-03</threshold>
            <left_val>3.7019008398056030e-01</left_val>
            <right_val>-9.1407224535942078e-02</right_val></_></_>
        <_>
          <_>
            <feature>
              <rects>
                <_>
                  10 7 2 10 -1.</_>
                <_>
                  10 7 1 5 2.</_>
                <_>
                  11 12 1 5 2.</_></rects>
              <tilted>0</tilted></feature>
            <threshold>2.3638885468244553e-03</threshold>
            <left_val>-1.6129054129123688e-01</left_val>
            <right_val>2.2430959343910217e-01</right_val></_></_></trees>
